{"learner":{"attributes":{},"feature_names":[],"feature_types":[],"gradient_booster":{"model":{"gbtree_model_param":{"num_parallel_tree":"1","num_trees":"50"},"iteration_indptr":[0,1,2,3,4,5,6,7,8,9,10,11,12,13,14,15,16,17,18,19,20,21,22,23,24,25,26,27,28,29,30,31,32,33,34,35,36,37,38,39,40,41,42,43,44,45,46,47,48,49,50],"tree_info":[0,0,0,0,0,0,0,0,0,0,0,0,0,0,0,0,0,0,0,0,0,0,0,0,0,0,0,0,0,0,0,0,0,0,0,0,0,0,0,0,0,0,0,0,0,0,0,0,0,0],"trees":[{"base_weights":[8.49224E-2,-2.5302774E-1,4.110006E-1,4.82453E-3,-2.435191E-2,1.9313902E-2,-5.7038147E-4],"categories":[],"categories_nodes":[],"categories_segments":[],"categories_sizes":[],"default_left":[0,0,0,0,0,0,0],"id":0,"left_children":[1,3,5,-1,-1,-1,-1],"loss_changes":[1.3678055E1,1.6779478E1,8.333924E0,0E0,0E0,0E0,0E0],"parents":[2147483647,0,0,1,1,2,2],"right_children":[2,4,6,-1,-1,-1,-1],"split_conditions":[4.5198813E2,8.6848E0,1E0,4.82453E-3,-2.435191E-2,1.9313902E-2,-5.7038147E-4],"split_indices":[65,20,687,0,0,0,0],"split_type":[0,0,0,0,0,0,0],"sum_hessian":[1.0965962E2,5.2340374E1,5.731925E1,3.197183E1,2.0368544E1,3.533568E1,2.1983568E1],"tree_param":{"num_deleted":"0","num_feature":"688","num_nodes":"7","size_leaf_vector":"1"}},{"base_weights":[4.5197684E-2,2.628397E-1,-1.3359386E-2,-1.6432496E-3,1.6959598E-2],"categories":[],"categories_nodes":[],"categories_segments":[],"categories_sizes":[],"default_left":[0,0,0,0,0],"id":1,"left_children":[1,3,-1,-1,-1],"loss_changes":[1.3018452E1,1.0013098E1,0E0,0E0,0E0],"parents":[2147483647,0,0,1,1],"right_children":[2,4,-1,-1,-1],"split_conditions":[8.061395E1,4.4753436E2,-1.3359386E-2,-1.6432496E-3,1.6959598E-2],"split_indices":[27,65,0,0,0],"split_type":[0,0,0,0,0],"sum_hessian":[1.0590809E2,7.8549706E1,2.7358389E1,4.034313E1,3.8206577E1],"tree_param":{"num_deleted":"0","num_feature":"688","num_nodes":"5","size_leaf_vector":"1"}},{"base_weights":[-2.157136E-3,-4.9560863E-1,3.8495612E-1,8.3140953E-4,-2.279688E-2,1.947401E-2,-6.120084E-4],"categories":[],"categories_nodes":[],"categories_segments":[],"categories_sizes":[],"default_left":[0,0,0,0,0,0,0],"id":2,"left_children":[1,3,5,-1,-1,-1,-1],"loss_changes":[2.2724478E1,9.790158E0,8.854919E0,0E0,0E0,0E0,0E0],"parents":[2147483647,0,0,1,1,2,2],"right_children":[2,4,6,-1,-1,-1,-1],"split_conditions":[4.4753436E2,9.47776E0,1E0,8.3140953E-4,-2.279688E-2,1.947401E-2,-6.120084E-4],"split_indices":[65,21,687,0,0,0,0],"split_type":[0,0,0,0,0,0,0],"sum_hessian":[1.05402885E2,4.7219215E1,5.818367E1,1.7610285E1,2.960893E1,3.3203953E1,2.4979713E1],"tree_param":{"num_deleted":"0","num_feature":"688","num_nodes":"7","size_leaf_vector":"1"}},{"base_weights":[-4.5094327E-3,-3.9478862E-1,3.28739E-1,7.283374E-3,-2.1939404E-2,-2.7050085E-3,1.955717E-2],"categories":[],"categories_nodes":[],"categories_segments":[],"categories_sizes":[],"default_left":[0,0,0,0,0,0,0],"id":3,"left_children":[1,3,5,-1,-1,-1,-1],"loss_changes":[1.5682302E1,1.5885137E1,1.0731065E1,0E0,0E0,0E0,0E0],"parents":[2147483647,0,0,1,1,2,2],"right_children":[2,4,6,-1,-1,-1,-1],"split_conditions":[4.5745685E2,9.47776E0,7.889784E1,7.283374E-3,-2.1939404E-2,-2.7050085E-3,1.955717E-2],"split_indices":[65,21,54,0,0,0,0],"split_type":[0,0,0,0,0,0,0],"sum_hessian":[1.0712807E2,5.0828156E1,5.6299908E1,1.7857908E1,3.297025E1,2.5973988E1,3.0325922E1],"tree_param":{"num_deleted":"0","num_feature":"688","num_nodes":"7","size_leaf_vector":"1"}},{"base_weights":[9.030121E-2,3.2001993E-1,-3.2898876E-1,1.8237067E-2,-2.6708381E-4,-2.1498173E-2,6.7650084E-3],"categories":[],"categories_nodes":[],"categories_segments":[],"categories_sizes":[],"default_left":[0,0,0,0,0,0,0],"id":4,"left_children":[1,3,5,-1,-1,-1,-1],"loss_changes":[1.2473573E1,9.857603E0,1.2520971E1,0E0,0E0,0E0,0E0],"parents":[2147483647,0,0,1,1,2,2],"right_children":[2,4,6,-1,-1,-1,-1],"split_conditions":[1.5930727E2,1.525504E1,8.908416E2,1.8237067E-2,-2.6708381E-4,-2.1498173E-2,6.7650084E-3],"split_indices":[37,21,46,0,0,0,0],"split_type":[0,0,0,0,0,0,0],"sum_hessian":[1.16329605E2,7.838688E1,3.7942734E1,3.9065212E1,3.9321663E1,2.1972132E1,1.59706E1],"tree_param":{"num_deleted":"0","num_feature":"688","num_nodes":"7","size_leaf_vector":"1"}},{"base_weights":[2.483733E-2,3.649412E-1,-3.4161142E-1,1.7994897E-2,-4.199392E-3,-2.1811703E-2,1.1857796E-2],"categories":[],"categories_nodes":[],"categories_segments":[],"categories_sizes":[],"default_left":[0,0,0,0,0,0,0],"id":5,"left_children":[1,3,5,-1,-1,-1,-1],"loss_changes":[1.512069E1,1.0078417E1,2.0563034E1,0E0,0E0,0E0,0E0],"parents":[2147483647,0,0,1,1,2,2],"right_children":[2,4,6,-1,-1,-1,-1],"split_conditions":[1.775E2,1.8051759E3,7.176267E2,1.7994897E-2,-4.199392E-3,-2.1811703E-2,1.1857796E-2],"split_indices":[68,5,17,0,0,0,0],"split_type":[0,0,0,0,0,0,0],"sum_hessian":[1.0832937E2,5.8273655E1,5.0055714E1,3.9303482E1,1.8970177E1,3.3334988E1,1.6720724E1],"tree_param":{"num_deleted":"0","num_feature":"688","num_nodes":"7","size_leaf_vector":"1"}},{"base_weights":[2.8221415E-2,3.2907936E-1,-3.2116166E-1,1.7078938E-2,-6.800944E-3,2.3961295E-3,-1.7751306E-2],"categories":[],"categories_nodes":[],"categories_segments":[],"categories_sizes":[],"default_left":[0,0,0,0,0,0,0],"id":6,"left_children":[1,3,5,-1,-1,-1,-1],"loss_changes":[1.3025378E1,1.1888275E1,7.8520875E0,0E0,0E0,0E0,0E0],"parents":[2147483647,0,0,1,1,2,2],"right_children":[2,4,6,-1,-1,-1,-1],"split_conditions":[1E0,1E0,1.526117E1,1.7078938E-2,-6.800944E-3,2.3961295E-3,-1.7751306E-2],"split_indices":[687,190,62,0,0,0,0],"split_type":[0,0,0,0,0,0,0],"sum_hessian":[1.1105256E2,6.2124126E1,4.8928432E1,4.365472E1,1.8469404E1,2.0714533E1,2.8213898E1],"tree_param":{"num_deleted":"0","num_feature":"688","num_nodes":"7","size_leaf_vector":"1"}},{"base_weights":[-4.1855485E-3,1.7409822E-2,-2.0863457E-1,-1.5324736E-2,1.5913262E-3],"categories":[],"categories_nodes":[],"categories_segments":[],"categories_sizes":[],"default_left":[0,0,0,0,0],"id":7,"left_children":[1,-1,3,-1,-1],"loss_changes":[1.4722182E1,0E0,8.979823E0,0E0,0E0],"parents":[2147483647,0,0,2,2],"right_children":[2,-1,4,-1,-1],"split_conditions":[2.3495078E2,1.7409822E-2,4.5745685E2,-1.5324736E-2,1.5913262E-3],"split_indices":[47,0,65,0,0],"split_type":[0,0,0,0,0],"sum_hessian":[1.0917047E2,2.2330935E1,8.683954E1,3.8301067E1,4.8538467E1],"tree_param":{"num_deleted":"0","num_feature":"688","num_nodes":"5","size_leaf_vector":"1"}},{"base_weights":[4.0307613E-3,1.7240405E-1,-1.5974702E-2,2.0101825E-2,-0E0],"categories":[],"categories_nodes":[],"categories_segments":[],"categories_sizes":[],"default_left":[0,0,0,0,0],"id":8,"left_children":[1,3,-1,-1,-1],"loss_changes":[1.0957618E1,8.658258E0,0E0,0E0,0E0],"parents":[2147483647,0,0,1,1],"right_children":[2,4,-1,-1,-1],"split_conditions":[7.340544E1,3E2,-1.5974702E-2,2.0101825E-2,-0E0],"split_indices":[22,70,0,0,0],"split_type":[0,0,0,0,0],"sum_hessian":[1.0864393E2,8.9052864E1,1.9591068E1,1.6829165E1,7.2223694E1],"tree_param":{"num_deleted":"0","num_feature":"688","num_nodes":"5","size_leaf_vector":"1"}},{"base_weights":[7.693921E-2,3.5866112E-1,-2.6018015E-1,-0E0,1.8662062E-2,-0E0,-1.8406585E-2],"categories":[],"categories_nodes":[],"categories_segments":[],"categories_sizes":[],"default_left":[0,0,0,0,0,0,0],"id":9,"left_children":[1,3,5,-1,-1,-1,-1],"loss_changes":[1.2226306E1,7.064824E0,5.9258966E0,0E0,0E0,0E0,0E0],"parents":[2147483647,0,0,1,1,2,2],"right_children":[2,4,6,-1,-1,-1,-1],"split_conditions":[3.326006E1,8.91456E1,3.8050558E2,-0E0,1.8662062E-2,-0E0,-1.8406585E-2],"split_indices":[27,17,38,0,0,0,0],"split_type":[0,0,0,0,0,0,0],"sum_hessian":[1.1460527E2,6.4580894E1,5.0024372E1,3.3043556E1,3.153734E1,3.294154E1,1.7082832E1],"tree_param":{"num_deleted":"0","num_feature":"688","num_nodes":"7","size_leaf_vector":"1"}},{"base_weights":[4.1865915E-2,4.1725224E-1,-1.8547474E-1,2.1584354E-2,-3.4435324E-3,-1.1736167E-2,8.099825E-3],"categories":[],"categories_nodes":[],"categories_segments":[],"categories_sizes":[],"default_left":[0,0,0,0,0,0,0],"id":10,"left_children":[1,3,5,-1,-1,-1,-1],"loss_changes":[1.1121994E1,1.0597224E1,9.0842905E0,0E0,0E0,0E0,0E0],"parents":[2147483647,0,0,1,1,2,2],"right_children":[2,4,6,-1,-1,-1,-1],"split_conditions":[1.0384E1,1.7693163E3,2.1234355E2,2.1584354E-2,-3.4435324E-3,-1.1736167E-2,8.099825E-3],"split_indices":[21,35,74,0,0,0,0],"split_type":[0,0,0,0,0,0,0],"sum_hessian":[1.1421575E2,4.3510372E1,7.070538E1,2.6788157E1,1.6722214E1,5.0390984E1,2.0314398E1],"tree_param":{"num_deleted":"0","num_feature":"688","num_nodes":"7","size_leaf_vector":"1"}},{"base_weights":[-0E0,2.7801505E-1,-4.145159E-1,1.8114021E-2,-5.503825E-3,-2.4895402E-2,3.8099056E-3],"categories":[],"categories_nodes":[],"categories_segments":[],"categories_sizes":[],"default_left":[0,0,0,0,0,0,0],"id":11,"left_children":[1,3,5,-1,-1,-1,-1],"loss_changes":[1.3625418E1,1.3471986E1,1.3604558E1,0E0,0E0,0E0,0E0],"parents":[2147483647,0,0,1,1,2,2],"right_children":[2,4,6,-1,-1,-1,-1],"split_conditions":[8.333333E1,3.293865E1,4.400327E2,1.8114021E-2,-5.503825E-3,-2.4895402E-2,3.8099056E-3],"split_indices":[67,62,65,0,0,0,0],"split_type":[0,0,0,0,0,0,0],"sum_hessian":[1.06078766E2,6.543405E1,4.0644714E1,3.7755383E1,2.7678667E1,2.156177E1,1.9082943E1],"tree_param":{"num_deleted":"0","num_feature":"688","num_nodes":"7","size_leaf_vector":"1"}},{"base_weights":[-1.9048385E-2,1.6024748E-2,-1.8776157E-1,3.0693198E-3,-1.6632909E-2],"categories":[],"categories_nodes":[],"categories_segments":[],"categories_sizes":[],"default_left":[0,0,0,0,0],"id":12,"left_children":[1,-1,3,-1,-1],"loss_changes":[1.1054878E1,0E0,1.1963303E1,0E0,0E0],"parents":[2147483647,0,0,2,2],"right_children":[2,-1,4,-1,-1],"split_conditions":[2.3495078E2,1.6024748E-2,1.775E2,3.0693198E-3,-1.6632909E-2],"split_indices":[47,0,68,0,0],"split_type":[0,0,0,0,0],"sum_hessian":[1.0530556E2,1.8428886E1,8.687667E1,5.0225883E1,3.6650784E1],"tree_param":{"num_deleted":"0","num_feature":"688","num_nodes":"5","size_leaf_vector":"1"}},{"base_weights":[7.125977E-2,3.474016E-1,-3.5138294E-1,1.9068416E-2,-3.2037275E-3,-1.9719195E-2,3.391658E-3],"categories":[],"categories_nodes":[],"categories_segments":[],"categories_sizes":[],"default_left":[0,0,0,0,0,0,0],"id":13,"left_children":[1,3,5,-1,-1,-1,-1],"loss_changes":[1.3885755E1,1.2082263E1,8.613709E0,0E0,0E0,0E0,0E0],"parents":[2147483647,0,0,1,1,2,2],"right_children":[2,4,6,-1,-1,-1,-1],"split_conditions":[7.95671E1,3.919194E2,3.287261E2,1.9068416E-2,-3.2037275E-3,-1.9719195E-2,3.391658E-3],"split_indices":[67,38,17,0,0,0,0],"split_type":[0,0,0,0,0,0,0],"sum_hessian":[1.06016945E2,6.6905334E1,3.9111614E1,3.9602684E1,2.730265E1,2.2798244E1,1.631337E1],"tree_param":{"num_deleted":"0","num_feature":"688","num_nodes":"7","size_leaf_vector":"1"}},{"base_weights":[-4.4925153E-2,-2.8055173E-1,3.2489976E-1,-0E0,-1.5729973E-2,1.733148E-2,-2.3542303E-3],"categories":[],"categories_nodes":[],"categories_segments":[],"categories_sizes":[],"default_left":[0,0,0,0,0,0,0],"id":14,"left_children":[1,3,5,-1,-1,-1,-1],"loss_changes":[1.0294051E1,5.610484E0,6.167297E0,0E0,0E0,0E0,0E0],"parents":[2147483647,0,0,1,1,2,2],"right_children":[2,4,6,-1,-1,-1,-1],"split_conditions":[1E0,3.919752E1,3.22503E0,-0E0,-1.5729973E-2,1.733148E-2,-2.3542303E-3],"split_indices":[148,27,42,0,0,0,0],"split_type":[0,0,0,0,0,0,0],"sum_hessian":[1.0586708E2,6.802632E1,3.784076E1,3.661167E1,3.1414648E1,2.264257E1,1.5198191E1],"tree_param":{"num_deleted":"0","num_feature":"688","num_nodes":"7","size_leaf_vector":"1"}},{"base_weights":[-0E0,1.7369814E-1,-1.7004991E-2,1.1637494E-2,-3.0818623E-3],"categories":[],"categories_nodes":[],"categories_segments":[],"categories_sizes":[],"default_left":[0,0,0,0,0],"id":15,"left_children":[1,3,-1,-1,-1],"loss_changes":[1.2425092E1,6.818842E0,0E0,0E0,0E0],"parents":[2147483647,0,0,1,1],"right_children":[2,4,-1,-1,-1],"split_conditions":[3.315328E1,1.9512938E2,-1.7004991E-2,1.1637494E-2,-3.0818623E-3],"split_indices":[21,68,0,0,0],"split_type":[0,0,0,0,0],"sum_hessian":[1.07027565E2,8.623486E1,2.0792698E1,4.8401558E1,3.783331E1],"tree_param":{"num_deleted":"0","num_feature":"688","num_nodes":"5","size_leaf_vector":"1"}},{"base_weights":[-5.5901468E-2,1.0471726E-1,-1.842259E-2,2.1467207E-2,-3.4188917E-3],"categories":[],"categories_nodes":[],"categories_segments":[],"categories_sizes":[],"default_left":[0,0,0,0,0],"id":16,"left_children":[1,3,-1,-1,-1],"loss_changes":[1.1415178E1,1.4301996E1,0E0,0E0,0E0],"parents":[2147483647,0,0,1,1],"right_children":[2,4,-1,-1,-1],"split_conditions":[3.421056E1,1.0020562E3,-1.842259E-2,2.1467207E-2,-3.4188917E-3],"split_indices":[21,58,0,0,0],"split_type":[0,0,0,0,0],"sum_hessian":[1.0131994E2,8.177374E1,1.9546198E1,1.8893414E1,6.2880333E1],"tree_param":{"num_deleted":"0","num_feature":"688","num_nodes":"5","size_leaf_vector":"1"}},{"base_weights":[-4.3679018E-2,2.4942607E-1,-3.7679648E-1,-3.3774136E-3,1.5498919E-2,-0E0,-2.2029959E-2],"categories":[],"categories_nodes":[],"categories_segments":[],"categories_sizes":[],"default_left":[0,0,0,0,0,0,0],"id":17,"left_children":[1,3,5,-1,-1,-1,-1],"loss_changes":[1.1319746E1,7.3839626E0,9.326689E0,0E0,0E0,0E0,0E0],"parents":[2147483647,0,0,1,1,2,2],"right_children":[2,4,6,-1,-1,-1,-1],"split_conditions":[5E0,4.400327E2,1.389784E2,-3.3774136E-3,1.5498919E-2,-0E0,-2.2029959E-2],"split_indices":[669,65,28,0,0,0,0],"split_type":[0,0,0,0,0,0,0],"sum_hessian":[1.0154199E2,5.2522793E1,4.9019203E1,2.2775885E1,2.974691E1,2.6505764E1,2.251344E1],"tree_param":{"num_deleted":"0","num_feature":"688","num_nodes":"7","size_leaf_vector":"1"}},{"base_weights":[-7.644489E-2,-2.9120466E-1,3.5408467E-1,1.9633437E-3,-1.6773377E-2,-0E0,1.7336579E-2],"categories":[],"categories_nodes":[],"categories_segments":[],"categories_sizes":[],"default_left":[0,0,0,0,0,0,0],"id":18,"left_children":[1,3,5,-1,-1,-1,-1],"loss_changes":[1.11905985E1,9.810526E0,3.1177745E0,0E0,0E0,0E0,0E0],"parents":[2147483647,0,0,1,1,2,2],"right_children":[2,4,6,-1,-1,-1,-1],"split_conditions":[3.718149E2,4.3181816E1,3.713518E1,1.9633437E-3,-1.6773377E-2,-0E0,1.7336579E-2],"split_indices":[17,67,62,0,0,0,0],"split_type":[0,0,0,0,0,0,0],"sum_hessian":[1.08577965E2,7.608782E1,3.249014E1,3.4320843E1,4.176698E1,1.7182138E1,1.5308E1],"tree_param":{"num_deleted":"0","num_feature":"688","num_nodes":"7","size_leaf_vector":"1"}},{"base_weights":[1.2118028E-2,2.1910468E-1,-1.8355034E-2,-4.0326347E-3,1.610982E-2],"categories":[],"categories_nodes":[],"categories_segments":[],"categories_sizes":[],"default_left":[0,0,0,0,0],"id":19,"left_children":[1,3,-1,-1,-1],"loss_changes":[1.5700277E1,1.2681358E1,0E0,0E0,0E0],"parents":[2147483647,0,0,1,1],"right_children":[2,4,-1,-1,-1],"split_conditions":[8.2094E2,2.260121E1,-1.8355034E-2,-4.0326347E-3,1.610982E-2],"split_indices":[4,73,0,0,0],"split_type":[0,0,0,0,0],"sum_hessian":[1.0742406E2,8.65455E1,2.087856E1,4.209844E1,4.4447063E1],"tree_param":{"num_deleted":"0","num_feature":"688","num_nodes":"5","size_leaf_vector":"1"}},{"base_weights":[3.0180506E-2,2.5095347E-1,-3.1027475E-1,-7.878717E-4,1.7451545E-2,-1.9833047E-2,5.547282E-3],"categories":[],"categories_nodes":[],"categories_segments":[],"categories_sizes":[],"default_left":[0,0,0,0,0,0,0],"id":20,"left_children":[1,3,5,-1,-1,-1,-1],"loss_changes":[9.137788E0,8.64874E0,1.0497187E1,0E0,0E0,0E0,0E0],"parents":[2147483647,0,0,1,1,2,2],"right_children":[2,4,6,-1,-1,-1,-1],"split_conditions":[2.4964508E2,6.498794E1,5.642828E2,-7.878717E-4,1.7451545E-2,-1.9833047E-2,5.547282E-3],"split_indices":[46,74,65,0,0,0,0],"split_type":[0,0,0,0,0,0,0],"sum_hessian":[1.0978326E2,7.022472E1,3.9558537E1,4.0620174E1,2.9604542E1,2.2743986E1,1.681455E1],"tree_param":{"num_deleted":"0","num_feature":"688","num_nodes":"7","size_leaf_vector":"1"}},{"base_weights":[-1.5729396E-1,1.9793217E-1,-4.686262E-1,1.286222E-2,-6.5593626E-3,-1.9119948E-2,-0E0],"categories":[],"categories_nodes":[],"categories_segments":[],"categories_sizes":[],"default_left":[0,0,0,0,0,0,0],"id":21,"left_children":[1,3,5,-1,-1,-1,-1],"loss_changes":[1.3291929E1,6.8403444E0,5.8643847E0,0E0,0E0,0E0,0E0],"parents":[2147483647,0,0,1,1,2,2],"right_children":[2,4,6,-1,-1,-1,-1],"split_conditions":[1.366912E1,1.7162222E3,1E0,1.286222E-2,-6.5593626E-3,-1.9119948E-2,-0E0],"split_indices":[21,47,162,0,0,0,0],"split_type":[0,0,0,0,0,0,0],"sum_hessian":[1.0490501E2,4.787994E1,5.7025066E1,3.2045612E1,1.5834326E1,3.775787E1,1.9267197E1],"tree_param":{"num_deleted":"0","num_feature":"688","num_nodes":"7","size_leaf_vector":"1"}},{"base_weights":[1.2624104E-1,-2.1879894E-1,4.7360608E-1,1.7620297E-3,-1.8409925E-2,-0E0,2.4886416E-2],"categories":[],"categories_nodes":[],"categories_segments":[],"categories_sizes":[],"default_left":[0,0,0,0,0,0,0],"id":22,"left_children":[1,3,5,-1,-1,-1,-1],"loss_changes":[1.4091494E1,7.9066772E0,1.1623326E1,0E0,0E0,0E0,0E0],"parents":[2147483647,0,0,1,1,2,2],"right_children":[2,4,6,-1,-1,-1,-1],"split_conditions":[8.0991046E2,3.4836292E3,1.3334695E2,1.7620297E-3,-1.8409925E-2,-0E0,2.4886416E-2],"split_indices":[56,41,17,0,0,0,0],"split_type":[0,0,0,0,0,0,0],"sum_hessian":[1.02596214E2,5.0532917E1,5.2063297E1,3.1672184E1,1.8860735E1,2.587486E1,2.6188435E1],"tree_param":{"num_deleted":"0","num_feature":"688","num_nodes":"7","size_leaf_vector":"1"}},{"base_weights":[-3.5477635E-2,1.2867098E-2,-2.1500981E-1,-1.1513299E-2,9.955263E-3],"categories":[],"categories_nodes":[],"categories_segments":[],"categories_sizes":[],"default_left":[0,0,0,0,0],"id":23,"left_children":[1,-1,3,-1,-1],"loss_changes":[1.0195086E1,0E0,1.047617E1,0E0,0E0],"parents":[2147483647,0,0,2,2],"right_children":[2,-1,4,-1,-1],"split_conditions":[2.3495078E2,1.2867098E-2,1.0042567E4,-1.1513299E-2,9.955263E-3],"split_indices":[47,0,59,0,0],"split_type":[0,0,0,0,0],"sum_hessian":[1.0735312E2,2.415989E1,8.319323E1,6.567409E1,1.7519142E1],"tree_param":{"num_deleted":"0","num_feature":"688","num_nodes":"5","size_leaf_vector":"1"}},{"base_weights":[-2.492472E-2,1.6247381E-1,-4.736501E-1,-1.6003089E-3,1.5130171E-2,-0E0,-2.1940656E-2],"categories":[],"categories_nodes":[],"categories_segments":[],"categories_sizes":[],"default_left":[0,0,0,0,0,0,0],"id":24,"left_children":[1,3,5,-1,-1,-1,-1],"loss_changes":[1.0449051E1,7.48018E0,4.7712793E0,0E0,0E0,0E0,0E0],"parents":[2147483647,0,0,1,1,2,2],"right_children":[2,4,6,-1,-1,-1,-1],"split_conditions":[1.1541387E3,1E0,3.4688892E2,-1.6003089E-3,1.5130171E-2,-0E0,-2.1940656E-2],"split_indices":[29,148,38,0,0,0,0],"split_type":[0,0,0,0,0,0,0],"sum_hessian":[1.0665362E2,7.579E1,3.0863623E1,4.8402546E1,2.7387453E1,1.50018635E1,1.5861758E1],"tree_param":{"num_deleted":"0","num_feature":"688","num_nodes":"7","size_leaf_vector":"1"}},{"base_weights":[-4.3650337E-2,2.0098454E-1,-5.128827E-1,-8.23931E-4,1.8623497E-2,-2.0693919E-2,-2.082754E-3],"categories":[],"categories_nodes":[],"categories_segments":[],"categories_sizes":[],"default_left":[0,0,0,0,0,0,0],"id":25,"left_children":[1,3,5,-1,-1,-1,-1],"loss_changes":[1.4342376E1,9.152455E0,2.5341215E0,0E0,0E0,0E0,0E0],"parents":[2147483647,0,0,1,1,2,2],"right_children":[2,4,6,-1,-1,-1,-1],"split_conditions":[6.71089E2,9.309662E1,1.7094532E3,-8.23931E-4,1.8623497E-2,-2.0693919E-2,-2.082754E-3],"split_indices":[39,74,57,0,0,0,0],"split_type":[0,0,0,0,0,0,0],"sum_hessian":[1.0888923E2,7.1909035E1,3.698019E1,4.943459E1,2.2474447E1,1.992936E1,1.7050829E1],"tree_param":{"num_deleted":"0","num_feature":"688","num_nodes":"7","size_leaf_vector":"1"}},{"base_weights":[-0E0,2.088054E-1,-4.7008327E-1,1.0743956E-2,-3.4047817E-3,-2.0450924E-2,-3.7283104E-4],"categories":[],"categories_nodes":[],"categories_segments":[],"categories_sizes":[],"default_left":[0,0,0,0,0,0,0],"id":26,"left_children":[1,3,5,-1,-1,-1,-1],"loss_changes":[1.1667837E1,5.108934E0,3.0153542E0,0E0,0E0,0E0,0E0],"parents":[2147483647,0,0,1,1,2,2],"right_children":[2,4,6,-1,-1,-1,-1],"split_conditions":[2.7413761E1,1E0,9.164264E2,1.0743956E-2,-3.4047817E-3,-2.0450924E-2,-3.7283104E-4],"split_indices":[21,190,11,0,0,0,0],"split_type":[0,0,0,0,0,0,0],"sum_hessian":[1.0504011E2,7.4564926E1,3.0475182E1,5.1702766E1,2.2862164E1,1.537586E1,1.509932E1],"tree_param":{"num_deleted":"0","num_feature":"688","num_nodes":"7","size_leaf_vector":"1"}},{"base_weights":[-0E0,1.326431E-2,-1.5269119E-1,-1.4305112E-2,2.783871E-3],"categories":[],"categories_nodes":[],"categories_segments":[],"categories_sizes":[],"default_left":[0,0,0,0,0],"id":27,"left_children":[1,-1,3,-1,-1],"loss_changes":[8.385433E0,0E0,9.2394495E0,0E0,0E0],"parents":[2147483647,0,0,2,2],"right_children":[2,-1,4,-1,-1],"split_conditions":[1.20708E0,1.326431E-2,4.5745685E2,-1.4305112E-2,2.783871E-3],"split_indices":[0,0,65,0,0],"split_type":[0,0,0,0,0],"sum_hessian":[1.11460915E2,2.2159594E1,8.930132E1,3.711472E1,5.2186604E1],"tree_param":{"num_deleted":"0","num_feature":"688","num_nodes":"5","size_leaf_vector":"1"}},{"base_weights":[2.4625024E-2,-2.715368E-1,3.3437675E-1,7.321939E-3,-1.7385649E-2,8.6797046E-4,2.1700684E-2],"categories":[],"categories_nodes":[],"categories_segments":[],"categories_sizes":[],"default_left":[0,0,0,0,0,0,0],"id":28,"left_children":[1,3,5,-1,-1,-1,-1],"loss_changes":[1.1071143E1,1.2029249E1,6.5469513E0,0E0,0E0,0E0,0E0],"parents":[2147483647,0,0,1,1,2,2],"right_children":[2,4,6,-1,-1,-1,-1],"split_conditions":[4.5745685E2,2.7974484E2,1.1517148E3,7.321939E-3,-1.7385649E-2,8.6797046E-4,2.1700684E-2],"split_indices":[65,47,77,0,0,0,0],"split_type":[0,0,0,0,0,0,0],"sum_hessian":[1.0702637E2,5.2693916E1,5.4332455E1,1.9443913E1,3.3250004E1,3.7682163E1,1.6650288E1],"tree_param":{"num_deleted":"0","num_feature":"688","num_nodes":"7","size_leaf_vector":"1"}},{"base_weights":[1.2291547E-1,-1.3042551E-1,3.7650666E-1,1.2513749E-2,-1.3567159E-2,1.6598247E-2,-1.7093506E-3],"categories":[],"categories_nodes":[],"categories_segments":[],"categories_sizes":[],"default_left":[0,0,0,0,0,0,0],"id":29,"left_children":[1,3,5,-1,-1,-1,-1],"loss_changes":[8.2462435E0,1.3298864E1,6.6566687E0,0E0,0E0,0E0,0E0],"parents":[2147483647,0,0,1,1,2,2],"right_children":[2,4,6,-1,-1,-1,-1],"split_conditions":[4.5745685E2,4.0851044E2,6.9946404E0,1.2513749E-2,-1.3567159E-2,1.6598247E-2,-1.7093506E-3],"split_indices":[65,35,60,0,0,0,0],"split_type":[0,0,0,0,0,0,0],"sum_hessian":[1.1151859E2,5.443864E1,5.707995E1,1.8289206E1,3.6149437E1,3.9695316E1,1.7384632E1],"tree_param":{"num_deleted":"0","num_feature":"688","num_nodes":"7","size_leaf_vector":"1"}},{"base_weights":[-5.857169E-3,1.84378E-1,-3.9672565E-1,-2.5035788E-3,1.4456386E-2,-2.2056084E-2,1.5276594E-3],"categories":[],"categories_nodes":[],"categories_segments":[],"categories_sizes":[],"default_left":[0,0,0,0,0,0,0],"id":30,"left_children":[1,3,5,-1,-1,-1,-1],"loss_changes":[9.337333E0,7.8385444E0,8.462324E0,0E0,0E0,0E0,0E0],"parents":[2147483647,0,0,1,1,2,2],"right_children":[2,4,6,-1,-1,-1,-1],"split_conditions":[3.30965E1,2.260121E1,1.6166006E3,-2.5035788E-3,1.4456386E-2,-2.2056084E-2,1.5276594E-3],"split_indices":[36,73,57,0,0,0,0],"split_type":[0,0,0,0,0,0,0],"sum_hessian":[1.0877128E2,7.28987E1,3.5872578E1,3.9549015E1,3.334968E1,1.8847664E1,1.7024912E1],"tree_param":{"num_deleted":"0","num_feature":"688","num_nodes":"7","size_leaf_vector":"1"}},{"base_weights":[2.5766857E-2,3.1254134E-1,-4.4136012E-1,1.5796984E-2,-2.9900467E-3,-2.129515E-2,-1.4322049E-3],"categories":[],"categories_nodes":[],"categories_segments":[],"categories_sizes":[],"default_left":[0,0,0,0,0,0,0],"id":31,"left_children":[1,3,5,-1,-1,-1,-1],"loss_changes":[1.5685617E1,8.563845E0,3.7495222E0,0E0,0E0,0E0,0E0],"parents":[2147483647,0,0,1,1,2,2],"right_children":[2,4,6,-1,-1,-1,-1],"split_conditions":[1.4197761E1,7.4794226E2,6.5763E1,1.5796984E-2,-2.9900467E-3,-2.129515E-2,-1.4322049E-3],"split_indices":[20,52,74,0,0,0,0],"split_type":[0,0,0,0,0,0,0],"sum_hessian":[1.055948E2,6.867722E1,3.6917572E1,4.446542E1,2.4211805E1,1.540949E1,2.1508083E1],"tree_param":{"num_deleted":"0","num_feature":"688","num_nodes":"7","size_leaf_vector":"1"}},{"base_weights":[2.126868E-2,2.8346926E-1,-4.0533072E-1,1.3000017E-2,-6.136125E-3,-1.8936865E-2,-1.5433329E-4],"categories":[],"categories_nodes":[],"categories_segments":[],"categories_sizes":[],"default_left":[0,0,0,0,0,0,0],"id":32,"left_children":[1,3,5,-1,-1,-1,-1],"loss_changes":[1.3153513E1,7.4536343E0,3.470427E0,0E0,0E0,0E0,0E0],"parents":[2147483647,0,0,1,1,2,2],"right_children":[2,4,6,-1,-1,-1,-1],"split_conditions":[1.3015332E2,4.4620908E2,8.078706E1,1.3000017E-2,-6.136125E-3,-1.8936865E-2,-1.5433329E-4],"split_indices":[28,23,31,0,0,0,0],"split_type":[0,0,0,0,0,0,0],"sum_hessian":[1.0630134E2,6.9287056E1,3.7014282E1,5.4118694E1,1.5168359E1,1.7727224E1,1.9287058E1],"tree_param":{"num_deleted":"0","num_feature":"688","num_nodes":"7","size_leaf_vector":"1"}},{"base_weights":[-0E0,1.1323295E-2,-1.1169166E-1,-8.3314E-3,8.946019E-3],"categories":[],"categories_nodes":[],"categories_segments":[],"categories_sizes":[],"default_left":[0,0,0,0,0],"id":33,"left_children":[1,-1,3,-1,-1],"loss_changes":[5.5094295E0,0E0,7.631755E0,0E0,0E0],"parents":[2147483647,0,0,2,2],"right_children":[2,-1,4,-1,-1],"split_conditions":[1.20708E0,1.1323295E-2,1.0042567E4,-8.3314E-3,8.946019E-3],"split_indices":[0,0,59,0,0],"split_type":[0,0,0,0,0],"sum_hessian":[1.0748575E2,2.1331692E1,8.615405E1,6.433493E1,2.1819124E1],"tree_param":{"num_deleted":"0","num_feature":"688","num_nodes":"5","size_leaf_vector":"1"}},{"base_weights":[9.984661E-2,-2.1728499E-1,3.932474E-1,7.8997975E-3,-1.4782625E-2,2.236834E-2,-0E0],"categories":[],"categories_nodes":[],"categories_segments":[],"categories_sizes":[],"default_left":[0,0,0,0,0,0,0],"id":34,"left_children":[1,3,5,-1,-1,-1,-1],"loss_changes":[1.0951683E1,9.2967205E0,8.869491E0,0E0,0E0,0E0,0E0],"parents":[2147483647,0,0,1,1,2,2],"right_children":[2,4,6,-1,-1,-1,-1],"split_conditions":[4.5745685E2,2.7974484E2,7.027762E2,7.8997975E-3,-1.4782625E-2,2.236834E-2,-0E0],"split_indices":[65,47,65,0,0,0,0],"split_type":[0,0,0,0,0,0,0],"sum_hessian":[1.0272856E2,4.775834E1,5.4970226E1,1.6407043E1,3.1351295E1,2.3543976E1,3.142625E1],"tree_param":{"num_deleted":"0","num_feature":"688","num_nodes":"7","size_leaf_vector":"1"}},{"base_weights":[-3.828445E-2,2.400276E-1,-2.557567E-1,1.5901908E-2,-1.7676965E-3,-1.2438738E-2,1.6213213E-3],"categories":[],"categories_nodes":[],"categories_segments":[],"categories_sizes":[],"default_left":[0,0,0,0,0,0,0],"id":35,"left_children":[1,3,5,-1,-1,-1,-1],"loss_changes":[7.1285567E0,5.6331697E0,4.55431E0,0E0,0E0,0E0,0E0],"parents":[2147483647,0,0,1,1,2,2],"right_children":[2,4,6,-1,-1,-1,-1],"split_conditions":[4.5178704E0,2E0,1E0,1.5901908E-2,-1.7676965E-3,-1.2438738E-2,1.6213213E-3],"split_indices":[26,677,162,0,0,0,0],"split_type":[0,0,0,0,0,0,0],"sum_hessian":[1.04588356E2,4.262938E1,6.1958973E1,2.0548086E1,2.2081291E1,4.0712345E1,2.124663E1],"tree_param":{"num_deleted":"0","num_feature":"688","num_nodes":"7","size_leaf_vector":"1"}},{"base_weights":[-0E0,2.6129118E-1,-2.7710536E-1,1.6895624E-2,-1.1967928E-3,3.3306456E-3,-1.4228279E-2],"categories":[],"categories_nodes":[],"categories_segments":[],"categories_sizes":[],"default_left":[0,0,0,0,0,0,0],"id":36,"left_children":[1,3,5,-1,-1,-1,-1],"loss_changes":[8.531389E0,7.311934E0,5.7012334E0,0E0,0E0,0E0,0E0],"parents":[2147483647,0,0,1,1,2,2],"right_children":[2,4,6,-1,-1,-1,-1],"split_conditions":[5E0,1.6457654E3,4.4523566E2,1.6895624E-2,-1.1967928E-3,3.3306456E-3,-1.4228279E-2],"split_indices":[669,35,70,0,0,0,0],"split_type":[0,0,0,0,0,0,0],"sum_hessian":[1.0541032E2,5.699178E1,4.8418537E1,2.6688932E1,3.0302845E1,1.6114128E1,3.230441E1],"tree_param":{"num_deleted":"0","num_feature":"688","num_nodes":"7","size_leaf_vector":"1"}},{"base_weights":[-2.6290517E-2,7.381765E-2,-1.2194004E-2,-3.7945136E-3,1.2543081E-2],"categories":[],"categories_nodes":[],"categories_segments":[],"categories_sizes":[],"default_left":[0,0,0,0,0],"id":37,"left_children":[1,3,-1,-1,-1],"loss_changes":[5.218008E0,7.788495E0,0E0,0E0,0E0],"parents":[2147483647,0,0,1,1],"right_children":[2,4,-1,-1,-1],"split_conditions":[3.421056E1,4.572736E1,-1.2194004E-2,-3.7945136E-3,1.2543081E-2],"split_indices":[21,22,0,0,0],"split_type":[0,0,0,0,0],"sum_hessian":[1.05781204E2,8.586337E1,1.991783E1,5.4866085E1,3.099729E1],"tree_param":{"num_deleted":"0","num_feature":"688","num_nodes":"5","size_leaf_vector":"1"}},{"base_weights":[-0E0,1.3787062E-2,-1.5789661E-1,-1.696934E-2,1.981782E-3],"categories":[],"categories_nodes":[],"categories_segments":[],"categories_sizes":[],"default_left":[0,0,0,0,0],"id":38,"left_children":[1,-1,3,-1,-1],"loss_changes":[9.081881E0,0E0,1.053092E1,0E0,0E0],"parents":[2147483647,0,0,2,2],"right_children":[2,-1,4,-1,-1],"split_conditions":[2.3495078E2,1.3787062E-2,6.498794E1,-1.696934E-2,1.981782E-3],"split_indices":[47,0,74,0,0],"split_type":[0,0,0,0,0],"sum_hessian":[1.1173971E2,2.2352276E1,8.938743E1,2.9304792E1,6.0082638E1],"tree_param":{"num_deleted":"0","num_feature":"688","num_nodes":"5","size_leaf_vector":"1"}},{"base_weights":[-7.205973E-2,-3.5085464E-1,1.6713512E-1,5.1854164E-3,-1.8882455E-2,1.3067236E-2,-5.5866474E-3],"categories":[],"categories_nodes":[],"categories_segments":[],"categories_sizes":[],"default_left":[0,0,0,0,0,0,0],"id":39,"left_children":[1,3,5,-1,-1,-1,-1],"loss_changes":[7.7197475E0,1.0377091E1,7.13035E0,0E0,0E0,0E0,0E0],"parents":[2147483647,0,0,1,1,2,2],"right_children":[2,4,6,-1,-1,-1,-1],"split_conditions":[4.5745685E2,3.6818243E2,3.943263E2,5.1854164E-3,-1.8882455E-2,1.3067236E-2,-5.5866474E-3],"split_indices":[65,35,23,0,0,0,0],"split_type":[0,0,0,0,0,0,0],"sum_hessian":[9.977057E1,4.7532227E1,5.2238342E1,1.674002E1,3.0792206E1,3.0329777E1,2.1908564E1],"tree_param":{"num_deleted":"0","num_feature":"688","num_nodes":"7","size_leaf_vector":"1"}},{"base_weights":[-2.1599485E-2,1.4458523E-2,-2.0083998E-1,1.0588912E-3,-1.3346639E-2],"categories":[],"categories_nodes":[],"categories_segments":[],"categories_sizes":[],"default_left":[0,0,0,0,0],"id":40,"left_children":[1,-1,3,-1,-1],"loss_changes":[1.0769517E1,0E0,6.451662E0,0E0,0E0],"parents":[2147483647,0,0,2,2],"right_children":[2,-1,4,-1,-1],"split_conditions":[2.4020454E2,1.4458523E-2,5E0,1.0588912E-3,-1.3346639E-2],"split_indices":[47,0,669,0,0],"split_type":[0,0,0,0,0],"sum_hessian":[1.05338234E2,2.1681152E1,8.365708E1,4.4193085E1,3.9463993E1],"tree_param":{"num_deleted":"0","num_feature":"688","num_nodes":"5","size_leaf_vector":"1"}},{"base_weights":[2.9634433E-2,3.417119E-1,-3.2089752E-1,-0E0,1.6464539E-2,4.090101E-3,-1.7371746E-2],"categories":[],"categories_nodes":[],"categories_segments":[],"categories_sizes":[],"default_left":[0,0,0,0,0,0,0],"id":41,"left_children":[1,3,5,-1,-1,-1,-1],"loss_changes":[1.3014222E1,5.337054E0,8.438553E0,0E0,0E0,0E0,0E0],"parents":[2147483647,0,0,1,1,2,2],"right_children":[2,4,6,-1,-1,-1,-1],"split_conditions":[5E0,1.0437464E2,7.3691656E2,-0E0,1.6464539E-2,4.090101E-3,-1.7371746E-2],"split_indices":[669,17,58,0,0,0,0],"split_type":[0,0,0,0,0,0,0],"sum_hessian":[1.0595499E2,5.835014E1,4.7604847E1,2.5937635E1,3.2412502E1,1.7479319E1,3.012553E1],"tree_param":{"num_deleted":"0","num_feature":"688","num_nodes":"7","size_leaf_vector":"1"}},{"base_weights":[1.0876545E-3,-2.5349537E-1,2.848164E-1,-1.7720228E-2,8.53031E-3,-3.1998246E-3,1.4161547E-2],"categories":[],"categories_nodes":[],"categories_segments":[],"categories_sizes":[],"default_left":[0,0,0,0,0,0,0],"id":42,"left_children":[1,3,5,-1,-1,-1,-1],"loss_changes":[8.660849E0,1.3847598E1,5.8715563E0,0E0,0E0,0E0,0E0],"parents":[2147483647,0,0,1,1,2,2],"right_children":[2,4,6,-1,-1,-1,-1],"split_conditions":[1.0437464E2,5.6812604E2,5.604347E2,-1.7720228E-2,8.53031E-3,-3.1998246E-3,1.4161547E-2],"split_indices":[17,76,70,0,0,0,0],"split_type":[0,0,0,0,0,0,0],"sum_hessian":[1.0655108E2,5.3792625E1,5.2758453E1,3.343411E1,2.0358519E1,1.6947458E1,3.5810993E1],"tree_param":{"num_deleted":"0","num_feature":"688","num_nodes":"7","size_leaf_vector":"1"}},{"base_weights":[-2.6425159E-2,1.4663848E-2,-1.8296231E-1,-1.8466666E-2,1.5587513E-3],"categories":[],"categories_nodes":[],"categories_segments":[],"categories_sizes":[],"default_left":[0,0,0,0,0],"id":43,"left_children":[1,-1,3,-1,-1],"loss_changes":[9.542244E0,0E0,1.1370514E1,0E0,0E0],"parents":[2147483647,0,0,2,2],"right_children":[2,-1,4,-1,-1],"split_conditions":[2.3495078E2,1.4663848E-2,6.498794E1,-1.8466666E-2,1.5587513E-3],"split_indices":[47,0,74,0,0],"split_type":[0,0,0,0,0],"sum_hessian":[1.0519084E2,1.827436E1,8.691648E1,2.781946E1,5.909702E1],"tree_param":{"num_deleted":"0","num_feature":"688","num_nodes":"5","size_leaf_vector":"1"}},{"base_weights":[-0E0,3.380538E-1,-2.6150844E-1,1.5083342E-2,-0E0,-1.6189063E-2,3.3848465E-4],"categories":[],"categories_nodes":[],"categories_segments":[],"categories_sizes":[],"default_left":[0,0,0,0,0,0,0],"id":44,"left_children":[1,3,5,-1,-1,-1,-1],"loss_changes":[9.825228E0,3.8458562E0,6.03277E0,0E0,0E0,0E0,0E0],"parents":[2147483647,0,0,1,1,2,2],"right_children":[2,4,6,-1,-1,-1,-1],"split_conditions":[1.276288E1,7.520798E1,4.4753436E2,1.5083342E-2,-0E0,-1.6189063E-2,3.3848465E-4],"split_indices":[21,67,65,0,0,0,0],"split_type":[0,0,0,0,0,0,0],"sum_hessian":[9.8145355E1,4.252869E1,5.5616665E1,2.7439947E1,1.5088743E1,2.5572222E1,3.0044443E1],"tree_param":{"num_deleted":"0","num_feature":"688","num_nodes":"7","size_leaf_vector":"1"}},{"base_weights":[-7.506979E-2,1.6534302E-1,-3.6456215E-1,-3.5482172E-3,1.1890815E-2,-0E0,-1.5267712E-2],"categories":[],"categories_nodes":[],"categories_segments":[],"categories_sizes":[],"default_left":[0,0,0,0,0,0,0],"id":45,"left_children":[1,3,5,-1,-1,-1,-1],"loss_changes":[8.237224E0,5.191524E0,3.6491313E0,0E0,0E0,0E0,0E0],"parents":[2147483647,0,0,1,1,2,2],"right_children":[2,4,6,-1,-1,-1,-1],"split_conditions":[5E0,1.0363176E2,1E0,-3.5482172E-3,1.1890815E-2,-0E0,-1.5267712E-2],"split_indices":[669,17,687,0,0,0,0],"split_type":[0,0,0,0,0,0,0],"sum_hessian":[1.0229001E2,5.4604107E1,4.7685905E1,2.4138039E1,3.0466066E1,1.616399E1,3.1521917E1],"tree_param":{"num_deleted":"0","num_feature":"688","num_nodes":"7","size_leaf_vector":"1"}},{"base_weights":[-3.3637296E-2,-2.8217247E-1,1.9617762E-1,1.363253E-3,-1.4549507E-2,-4.7056917E-3,1.4997001E-2],"categories":[],"categories_nodes":[],"categories_segments":[],"categories_sizes":[],"default_left":[0,0,0,0,0,0,0],"id":46,"left_children":[1,3,5,-1,-1,-1,-1],"loss_changes":[7.1268816E0,5.4537606E0,8.345375E0,0E0,0E0,0E0,0E0],"parents":[2147483647,0,0,1,1,2,2],"right_children":[2,4,6,-1,-1,-1,-1],"split_conditions":[1E0,4.1515152E1,1.1254632E2,1.363253E-3,-1.4549507E-2,-4.7056917E-3,1.4997001E-2],"split_indices":[142,67,17,0,0,0,0],"split_type":[0,0,0,0,0,0,0],"sum_hessian":[1.10046394E2,5.5239902E1,5.4806496E1,2.1958488E1,3.3281414E1,2.552451E1,2.9281984E1],"tree_param":{"num_deleted":"0","num_feature":"688","num_nodes":"7","size_leaf_vector":"1"}},{"base_weights":[-8.2919054E-2,1.09395115E-2,-2.4021211E-1,-1.83567E-2,-0E0],"categories":[],"categories_nodes":[],"categories_segments":[],"categories_sizes":[],"default_left":[0,0,0,0,0],"id":47,"left_children":[1,-1,3,-1,-1],"loss_changes":[8.64779E0,0E0,7.8441124E0,0E0,0E0],"parents":[2147483647,0,0,2,2],"right_children":[2,-1,4,-1,-1],"split_conditions":[2.4020454E2,1.09395115E-2,6.5763E1,-1.83567E-2,-0E0],"split_indices":[47,0,74,0,0],"split_type":[0,0,0,0,0],"sum_hessian":[1.0648005E2,2.2211323E1,8.426873E1,2.526828E1,5.9000446E1],"tree_param":{"num_deleted":"0","num_feature":"688","num_nodes":"5","size_leaf_vector":"1"}},{"base_weights":[1.3809617E-2,1.9184588E-1,-1.0046418E-2,1.02859475E-2,-3.946788E-3],"categories":[],"categories_nodes":[],"categories_segments":[],"categories_sizes":[],"default_left":[0,0,0,0,0],"id":48,"left_children":[1,3,-1,-1,-1],"loss_changes":[7.1912003E0,5.038965E0,0E0,0E0,0E0],"parents":[2147483647,0,0,1,1],"right_children":[2,4,-1,-1,-1],"split_conditions":[1E0,2.7319583E3,-1.0046418E-2,1.02859475E-2,-3.946788E-3],"split_indices":[188,35,0,0,0],"split_type":[0,0,0,0,0],"sum_hessian":[1.01109314E2,7.273222E1,2.837709E1,5.0717285E1,2.2014942E1],"tree_param":{"num_deleted":"0","num_feature":"688","num_nodes":"5","size_leaf_vector":"1"}},{"base_weights":[6.2539983E-3,2.80435E-1,-2.4875538E-1,-3.0013267E-3,1.768381E-2,-1.7574413E-2,-0E0],"categories":[],"categories_nodes":[],"categories_segments":[],"categories_sizes":[],"default_left":[0,0,0,0,0,0,0],"id":49,"left_children":[1,3,5,-1,-1,-1,-1],"loss_changes":[8.500503E0,9.135431E0,5.666979E0,0E0,0E0,0E0,0E0],"parents":[2147483647,0,0,1,1,2,2],"right_children":[2,4,6,-1,-1,-1,-1],"split_conditions":[5E0,1.0437464E2,3E0,-3.0013267E-3,1.768381E-2,-1.7574413E-2,-0E0],"split_indices":[669,17,682,0,0,0,0],"split_type":[0,0,0,0,0,0,0],"sum_hessian":[1.0820864E2,5.46102E1,5.3598446E1,2.5575638E1,2.903456E1,1.8390463E1,3.520798E1],"tree_param":{"num_deleted":"0","num_feature":"688","num_nodes":"7","size_leaf_vector":"1"}}]},"name":"gbtree"},"learner_model_param":{"base_score":"5E-1","boost_from_average":"1","num_class":"0","num_feature":"688","num_target":"1"},"objective":{"name":"binary:logistic","reg_loss_param":{"scale_pos_weight":"1.49765253"}}},"version":[3,0,2]}